svm_type c_svc
kernel_type rbf
gamma 0.0434783
nr_class 13
total_sv 218
rho -0.0707043 0.155647 0.184607 0.0863515 0.0414744 0.13004 -0.00859754 0.232319 0.0208848 -0.0502695 0.330529 0.27684 0.208517 0.0665456 0.145061 0.106176 0.184072 0.0621318 0.279878 0.0884952 0.0203226 0.366691 0.33522 -0.140866 -0.070548 -0.101603 -0.0232247 -0.145431 0.0825632 -0.11934 -0.187761 0.181277 0.120656 0.0792111 0.0399475 0.118101 -0.00439253 0.208501 0.0220894 -0.0462842 0.293517 0.246428 -0.0399631 0.0443255 -0.0842074 0.150071 -0.0540018 -0.124908 0.243309 0.190391 0.0784391 -0.0437776 0.17049 -0.017875 -0.0861932 0.260342 0.208621 -0.122368 0.0927578 -0.0961257 -0.163316 0.181834 0.132281 0.21422 0.0265539 -0.0419764 0.302506 0.250594 -0.195967 -0.265553 0.13305 0.0479191 -0.0682442 0.283209 0.232321 0.35375 0.28935 -0.0527316
label 43 45 48 49 50 51 52 53 54 55 56 57 61
nr_sv 13 8 15 18 12 17 16 15 23 16 16 25 24
SV
0.1509917764717102 0.1878632352931737 0.1923914846997782 0.1769741051686302 0.1695482371380447 0.1836557384207902 0.1613488852712021 0.1977271971045064 0.1665495467486649 0.155470893649491 0.2046175999241154 0.2012591778643749 4:2 5:2 6:2 7:2 8:10 9:9 10:3 11:3 12:3 13:2 14:1 15:3 16:2 17:2 18:2 19:10 20:10 21:4 22:2 23:2 
0.06375742334715222 0.07962816521046501 0.08129409745316687 0.07416292648826414 0.07224204757126644 0.07809357288527494 0.06748183646937472 0.09120484361598852 0.06947779703457398 0.06392102332072097 0.1213446359394172 0.1052219913629347 4:1 5:2 6:2 7:2 8:10 9:8 10:3 11:3 12:2 13:2 14:1 15:2 16:2 17:2 18:2 19:10 20:9 21:2 22:2 23:3 
0.7737715848922415 0.9590902009687947 0.9827399805875969 0.9017842445731539 0.863956628438622 0.9374999717479365 0.8232264056781031 1 0.8474257975249174 0.7880892072270653 1 1 4:1 5:2 6:2 7:1 8:7 9:7 10:1 11:2 12:2 13:1 15:1 16:2 17:2 18:2 19:7 20:8 22:1 23:3 
0.08175054782492981 0.09877723182565394 0.1012489499178851 0.0942346123970829 0.09040029928529794 0.09664481968389675 0.08518957843524351 0.1062055776611637 0.08703043360807881 0.08187302911265973 0.1161582358674452 0.1096258669497883 3:1 4:2 5:2 6:2 7:3 8:9 9:9 10:3 11:2 12:2 13:2 15:2 16:2 17:2 18:5 19:10 20:10 21:2 22:2 23:2 
0.2120321019275383 0.2634753099250738 0.2702105417491023 0.2480201381413256 0.2375825581669359 0.2576147762658939 0.2264172615434393 0.2814242679737839 0.2327430255021789 0.2173543530542998 0.3073133692881983 0.2925582990631196 3:1 4:4 5:2 6:2 7:2 8:9 9:9 10:2 11:2 12:2 13:2 15:2 16:2 17:2 18:2 19:10 20:10 21:2 22:4 23:3 
0.01072769863480039 0.01447604672485717 0.01474156647379911 0.01322042096526308 0.01255177964501772 0.0153454881345057 0.0118091115140997 0.01841739463454286 0.01356928081648042 0.01166299546903018 0.02902041279996821 0.02354988875111895 3:1 4:2 5:2 6:2 7:3 8:8 9:9 10:3 11:3 12:1 13:2 15:3 16:2 17:2 18:3 19:9 20:10 21:2 22:3 23:2 
0.3776681175299148 0.4699599806214345 0.4816376434002133 0.4413354761543286 0.4233223531103333 0.4591333934029463 0.4026449012863977 0.5010216591150628 0.4150856859834821 0.3855441016648136 0.5398896667258321 0.5188012496154645 2:2 3:1 4:2 5:2 6:2 7:2 8:9 9:10 10:2 11:2 12:2 13:2 14:1 15:2 16:2 17:2 18:2 19:11 20:12 21:2 22:2 23:2 
0.2516316023994001 0.3134865530883502 0.3204946277369437 0.2939590194103833 0.2822818948921871 0.3058617744418706 0.268425552104821 0.3333524900339443 0.2764172626261606 0.2564283098009051 0.3601760257880168 0.3460968861935033 4:3 5:2 6:3 7:4 8:9 9:9 10:2 11:2 12:2 13:2 15:2 16:2 17:3 18:3 19:10 20:10 21:4 22:2 23:2 
0.1321968196065955 0.1636861189525876 0.1694947634041535 0.154838160298023 0.1476247768661743 0.1607180249097615 0.140910484897338 0.1749144549981701 0.1446818408502287 0.1353030809358237 0.1854184307835866 0.1792238451224517 4:2 5:3 6:2 7:2 8:9 9:9 10:4 11:2 12:2 13:2 15:2 16:2 17:2 18:2 19:10 20:10 21:4 22:3 23:2 
0.9294465996708104 1 1 1 1 1 0.9919628829889027 1 1 0.9494505885867027 1 1 1:3 2:6 3:6 4:3 5:3 6:3 7:3 8:3 9:3 10:3 11:3 12:9 13:9 15:4 16:4 17:4 18:13 19:13 20:13 21:2 22:2 23:2 
0.1739204623377009 0.2178383591251335 0.2233133906891291 0.2036570703715847 0.1958503343259285 0.2135451329824866 0.1864627932503213 0.2326991295540394 0.1918950725515392 0.1788603037930988 0.2530765274734942 0.2432872963282521 3:1 4:3 5:4 6:2 7:2 8:9 9:9 10:2 11:2 12:2 13:2 15:2 16:2 17:3 18:4 19:11 20:10 21:2 22:2 23:2 
0.1638059534587616 0.2037584999644093 0.2095047756869305 0.1913991044836494 0.1832969179042749 0.1992225683399792 0.1760661195910873 0.2170594272893473 0.1807710468782951 0.1681905943540334 0.2311305037483017 0.2234914192789685 4:2 5:2 6:2 7:2 8:9 9:10 10:3 11:3 12:2 13:3 14:2 15:2 16:2 17:2 18:4 19:10 20:10 21:2 22:2 23:2 
0.004275239818459601 0.005701705266955721 0.005023020804861117 0.005802622112859356 0.004720896163425992 0.004423849011547051 0.004786815893533587 0.003968420853205017 0.005325298877990049 0.004647755828984775 0 0.001103167404549566 3:1 4:2 5:2 6:2 7:2 8:9 9:9 10:4 11:2 12:2 13:3 15:2 16:2 17:3 18:3 19:11 20:10 21:2 22:2 23:3 
-0.3791245231535144 0.4379383294488795 0.3786129741702888 0.4071281590267887 0.3927956446643758 0.4225801367862058 0.3772765689043375 0.4817426760600774 0.3865801628425619 0.3625589822816623 0.5332286363763008 0.5401951482061705 7:4 8:6 15:1 16:2 17:1 18:1 19:1 20:1 21:2 22:1 
-0.4667218925145528 0.5278638254381489 0.4658548136195906 0.4998038601066895 0.4834436854234124 0.5165358914844908 0.4634624278479522 0.5592090717118779 0.474696977516109 0.4459219916802791 0.5965730945247953 0.5831756338546139 5:1 6:3 7:8 8:8 15:2 16:2 17:2 18:2 19:4 20:3 21:2 22:3 
-0.913642922282635 1 0.9093145902606953 0.9771547957299248 0.9432758961360684 1 0.9056107651463202 1 0.9284458087461833 0.8699106611130391 1 1 7:2 8:2 19:1 20:2 21:1 
-0.3082519272578391 0.3436813974296963 0.3041892972855588 0.3270781777187796 0.3152884154009215 0.3378256362043564 0.3030980858701353 0.3632929664768546 0.3117697017087762 0.2916074958076509 0.3876434488839729 0.377924643108319 7:7 8:7 9:1 10:2 15:1 16:2 17:2 18:2 19:4 20:3 21:1 22:2 
-0.2541776652830397 0.2861067947633775 0.2534646161992928 0.2711881142760225 0.262135776243333 0.2801551729396059 0.2516550058611823 0.3037825748989736 0.2581982282303276 0.241082186040406 0.3225364775652389 0.3126000042298712 1:1 7:8 8:8 9:2 15:2 16:2 17:2 18:2 19:2 20:3 21:3 22:3 
-0.4608565037214513 0.5200822909727927 0.459255259336814 0.4930772847004601 0.4759890162455783 0.510080472275439 0.4573861756957198 0.5505183982283675 0.4689127788987429 0.4394686994121201 0.5875003034387677 0.5733866154061794 5:1 6:1 7:9 8:8 15:2 16:2 17:2 18:2 19:2 20:2 21:2 22:2 23:3 
-0.4245843962940711 0.4787594354727333 0.4225363513273973 0.454057014742363 0.438559677701334 0.4693953351217916 0.4213109067680801 0.5057315301545272 0.4307532529828214 0.4037950366706996 0.5391331724132735 0.5215946938402392 7:7 8:6 14:2 15:2 16:1 17:2 19:2 20:2 21:2 
-0.1186160974129119 0.133874576038942 0.1176666479003067 0.1273767808092085 0.1227862471427975 0.1314796215381751 0.118025347182511 0.1396304124474756 0.1203177919577638 0.1137547040465226 0.146257365547042 0.1444097322323089 7:8 8:8 9:2 15:2 16:2 17:3 18:3 19:2 20:2 21:2 22:2 
-0.02458570651144871 -0.02487769668766653 0.02768412058845428 0.02842205473332754 0.02867664284091929 0.03046394275237599 0.02679515995940179 0 0.02708521923431126 0.0264677475741924 0 0.03527407907301412 1:4 2:6 3:6 4:7 5:6 6:6 7:6 8:6 9:7 10:6 11:7 12:6 13:4 14:7 15:9 16:11 17:6 18:5 19:4 20:8 21:11 22:9 23:7 
-0.6556858863908557 -0.6143301690981033 0.6666935077089063 0.7242105377240843 0.6977058185500108 0.7588253310487244 0.6638210841914371 0.8551847988314901 0.6872173329639318 0.6269483763126714 0.9131409425143829 0.8696542703051313 1:4 2:4 3:5 4:5 5:4 6:4 7:2 8:4 9:3 10:4 11:4 12:4 13:4 15:1 16:6 17:7 18:9 19:6 20:4 21:2 22:6 23:10 
-0.8436693923101022 -0.7905875878824199 0.858331346933383 0.929547836965148 0.8975865484958859 0.9755321042695215 0.8541308702001299 1 0.8804300962291033 0.8115392809997001 1 1 1:3 2:4 3:3 4:5 5:3 6:3 7:4 8:3 9:5 10:3 11:3 12:4 13:2 14:7 15:4 16:6 17:3 18:3 19:2 20:3 21:8 22:4 23:5 
-0.2888880981547947 -0.2715815101305249 0.2947381404394482 0.3173455058753428 0.3066785403441111 0.334195998000908 0.2863877147169811 0.3685305303976267 0.3001684966523295 0.272511607902083 0.3275033099788107 0.3831674712903959 1:4 2:6 3:5 4:4 5:4 6:4 7:4 8:4 9:4 10:5 11:6 12:6 13:4 16:8 17:9 18:11 19:6 20:4 21:4 22:7 23:11 
-0.03090951693769598 -0.02827009743423492 0.03265799691214256 0.03398864905110915 0.03335308431049044 0.03631239852031911 0.03592404825755875 0.05405926154395613 0.03259646884126725 0.06465688444659388 0.08615220162326241 0.04179536446923392 1:4 2:6 3:5 4:4 5:5 6:4 7:4 8:4 9:4 10:4 11:5 12:6 13:4 16:7 17:9 18:11 19:7 20:4 21:4 22:6 23:11 
-0.06694480175680634 -0.06259989925743045 0.06697556998513404 0.07277851695816213 0.06899468335128081 0.07767148030696425 0.0664601267691332 0.2335197404466264 0.06689211611477827 0.1129513003380918 0.1137013215941823 0.08706594928756566 1:4 2:6 3:6 4:6 5:6 6:7 7:6 8:6 9:7 10:6 11:7 12:6 13:4 14:7 15:9 16:11 17:8 18:4 19:5 20:6 21:11 22:9 23:7 
-0.1160124806357457 -0.1099376791406449 0.1174025275511723 0.1270399513326819 0.1231938995734624 0.1348403770758554 0.1200841370825221 0.1200579470102025 0.121206359679676 0.09660068419941102 0.1351166496360415 0.154673133306674 1:5 2:6 3:5 4:4 5:4 6:4 7:4 8:4 9:4 10:4 11:5 12:6 13:4 16:7 17:9 18:11 19:6 20:4 21:4 22:6 23:12 
-0.3120432859711297 -0.2924570724872631 0.3184054746046389 0.3445936307046469 0.3344437708710598 0.3617646129808363 0.3176782267276484 0.2707532323315298 0.3285010144203113 0.249293541741447 0.3865884844236445 0.415700184097767 1:4 2:6 3:7 4:6 5:6 6:7 7:6 8:6 9:7 10:6 11:6 12:6 13:4 14:7 15:9 16:11 17:8 18:4 19:4 20:6 21:11 22:9 23:8 
-0.3825603616924206 -0.3588505766419678 0.3898249705718712 0.4213571857436864 0.4072873153970434 0.4422523772034513 0.3870242730386628 0.4761453709442605 0.3987180121197771 0.3632118561750104 0.5226013945835022 0.5079441479002134 1:4 2:6 3:6 4:6 5:6 6:6 7:6 8:6 9:6 10:6 11:6 12:7 13:6 14:7 15:9 16:12 17:6 18:4 19:4 20:6 21:12 22:10 23:7 
-0.2629933233845662 -0.2448394766928509 0.2651017541657614 0.2874689527741704 0.2771423393616193 0.3019717233312172 0.2635529399315664 0.3600268467131162 0.2726848691403029 0.2779740799238444 0.4465584335069388 0.3467946537708337 1:4 2:6 3:7 4:7 5:6 6:7 7:6 8:6 9:6 10:7 11:6 12:6 13:4 14:7 15:9 16:11 17:6 18:5 19:5 20:8 21:11 22:9 23:7 
-0.5630304609944983 -0.5271822434873625 0.5724259621326293 0.6198650285603685 0.5993996877653236 0.6508540387691013 0.5709429962626024 0.7048537239405819 0.5875946512130669 0.5362796536082165 0.795508401472822 0.7469714646593826 1:3 2:6 3:4 4:7 5:7 6:6 7:5 8:5 9:5 10:6 11:6 12:6 13:4 14:7 15:8 16:11 17:6 18:4 19:4 20:7 21:9 22:8 23:6 
-0.2360303979386787 -0.2204344063337138 0.2397487712818965 0.2577972732487852 0.2511072037855109 0.2725696849901238 0.2392897138903236 0.3419231724542484 0.2472123912897431 0.2266485441274283 0.3238772255631535 0.3137045834561455 1:4 2:6 3:5 4:4 5:4 6:5 7:4 8:4 9:4 10:5 11:5 12:6 13:4 15:2 16:7 17:9 18:11 19:6 20:4 21:4 22:6 23:11 
-0 -0 0 0 0 0 0 0 0 0 0.1057008167455224 0 1:4 2:6 3:7 4:6 5:7 6:6 7:7 8:6 9:6 10:6 11:6 12:6 13:4 14:7 15:9 16:11 17:7 18:4 19:5 20:7 21:11 22:9 23:7 
-0 -0 0 0 0 0 0 0.09639446255010227 0 0.02309720875361417 0 0 1:4 2:6 3:7 4:6 5:6 6:6 7:6 8:7 9:7 10:6 11:6 12:6 13:4 14:7 15:9 16:11 17:7 18:5 19:4 20:7 21:11 22:9 23:7 
-0.1943876942881466 -0.1823582342903869 0.1973683575235526 0.2220698260385154 0.2080180035685245 0.2243186415311345 0.2003051469980473 0.3320803374383979 0.2021888338550264 0.1914422511250213 0.4557919603745598 0.2570820026808047 1:4 2:6 3:6 4:4 5:4 6:4 7:4 8:4 9:4 10:4 11:5 12:6 13:4 16:7 17:9 18:11 19:6 20:4 21:5 22:6 23:11 
-0.0689703134652645 -0.05862983755262542 -0.0724211842899263 0.06786192091487252 0.06469594014853688 0.0689708746589584 0.06157992147547734 0.0759106447137691 0.06352804003411323 0.06023809122835319 0.07990026021772557 0.078107343071725 1:3 2:7 3:6 4:3 5:3 6:3 7:4 8:4 9:3 10:3 11:3 12:9 13:9 14:1 15:4 16:5 17:5 18:13 19:13 20:13 21:2 22:2 23:2 
-0.07247748817366254 -0.08518098538325322 -0.1057831300248716 0.09833514224020927 0.09137529673585659 0.1027886964654359 0.09053120027911792 0.1096289333829959 0.09212898848274655 0.08623925165244903 0.1172648999463922 0.1158240993677387 1:3 2:6 3:6 4:3 5:4 6:3 7:3 8:3 9:3 10:3 11:3 12:7 13:7 17:4 18:4 19:5 20:13 21:13 22:13 23:2 
-0.3202199386906192 -0.3669914577250912 -0.4491100484675171 0.4252018662260968 0.4093021272294486 0.4416146154343977 0.3908937285912143 0.4745076712451203 0.4014323371270871 0.375121123963596 0.5090347090332062 0.4904187916391821 1:3 2:6 3:6 4:3 5:3 6:3 7:3 8:3 9:3 10:4 11:3 12:8 13:7 16:1 17:4 18:4 19:5 20:13 21:13 22:13 23:2 
-0.04051296604589896 -0 -0 0 0 0 0 0 0 0 0 0 1:3 2:6 3:6 4:3 5:3 6:3 7:3 8:3 9:3 10:3 11:3 12:9 13:8 15:4 16:4 17:4 18:13 19:13 20:12 21:2 22:2 23:2 
-0.3382183112926138 -0.3863449944231528 -0.4723256826590704 0.447652821471577 0.4329344637206048 0.4661739265725949 0.4135849885166378 0.4997713986430997 0.4238941895409686 0.3969240907000458 0.5367747052867748 0.516264808574296 1:3 2:5 3:6 4:3 5:3 6:3 7:3 8:3 9:3 10:3 11:4 12:7 13:7 17:4 18:4 19:3 20:13 21:13 22:13 23:3 
-0.2974308329005615 -0.04248300800035342 -0.05178534844429739 0.04817556869505439 0.0463794048854417 0.05163401828294154 0.0448369536293638 0.05506267733534673 0.04694374466751153 0.04376239887953917 0.05878623193072445 0.05812229428646339 1:3 2:5 3:6 4:3 5:3 6:3 7:3 8:3 9:3 10:3 11:2 12:8 13:9 15:4 16:4 17:3 18:12 19:13 20:13 21:1 22:2 23:2 
-0.1129523344694661 -0 -0 0 0 0 0 0 0 0 0 0 1:3 2:6 3:6 4:4 5:3 6:3 7:4 8:3 9:3 10:3 11:3 12:9 13:9 15:4 16:4 17:6 18:13 19:13 20:13 21:2 22:2 23:2 
-0.3041252141777388 -0 -0 0 0 0 0 0 0 0 0 0 1:3 2:6 3:6 4:3 5:3 6:3 7:3 8:3 9:3 10:3 11:3 12:10 13:9 14:1 15:4 16:4 17:4 18:13 19:13 20:13 21:2 22:2 23:2 
-0.2145669958088701 -0.2464604440811416 -0.2992753622935063 0.2833401198868397 0.2771074489200745 0.2954005098847515 0.2615964880209515 0.3188186270955569 0.2694057241907707 0.2500599032280889 0.3395143528659654 0.3276520237138589 1:3 2:6 3:6 4:4 5:3 6:3 7:3 8:4 9:3 10:3 11:3 12:7 13:7 17:5 18:4 19:4 20:13 21:13 22:13 23:3 
-0.02969466043475994 -0 -0 0 0 0 0 0 0 0 0 0 1:4 2:6 3:6 4:3 5:3 6:3 7:3 8:3 9:3 10:3 11:3 12:9 13:9 15:5 16:4 17:4 18:13 19:13 20:13 21:2 22:2 23:2 
-0.1417929305819834 -0.02420271952327597 -0.02832651979336085 0.02843337413634938 0.02425894672955774 0.02917339828799491 0.02670261909100536 0.03068045763978404 0.02613723473789745 0.0241399187917602 0.03338961106283173 0.03133177391156314 1:3 2:6 3:7 4:3 5:3 6:3 7:3 8:3 9:3 10:3 11:3 12:9 13:10 14:1 15:4 16:4 17:4 18:13 19:13 20:13 21:3 22:2 23:2 
-0.1969484487763511 -0.09261864889186484 -0.1134853417487055 0.1068525631478269 0.1037920406291676 0.1110993531492441 0.09779712453514315 0.1199626410783268 0.1011569991204072 0.09355480244177905 0.1289061273652315 0.1232459414404924 1:3 2:6 3:6 4:3 5:5 6:3 7:3 8:3 9:3 10:3 11:3 12:9 13:9 15:4 16:4 17:5 18:13 19:13 20:13 21:3 22:2 23:2 
-0.4287103766896773 -0.474046493691879 -0.5803750777712968 0.5484017332939778 0.528378631472937 0.5683162104432453 0.505987265785893 0.6140439073720643 0.5193273586540725 0.4839778141307862 0.6576033717230542 0.6326045091091776 1:3 2:6 3:4 4:3 5:3 6:3 7:3 8:3 9:3 10:3 11:3 12:6 13:9 15:2 16:4 17:4 18:11 19:13 20:13 21:1 22:2 23:2 
-0.2254617493174127 -0.1814065714633398 -0.2210443824189298 0.2100597934503741 0.2032907067061537 0.2173799248279713 0.1945895992566912 0.2349340231046336 0.1994180955468538 0.1861239987678163 0.2530497630100805 0.2420053526463612 1:4 2:6 3:6 4:3 5:3 6:3 7:3 8:4 9:3 10:3 11:4 12:9 13:9 15:4 16:6 17:4 18:13 19:13 20:13 21:3 22:2 23:2 
-0.07595333421664906 -0.08389251447833604 -0.102472481095034 0.09791770890682719 0.09761306751561649 0.09859804869662511 0.09046251702893895 0.1111475200518017 0.09355231501971693 0.08623853938450921 0.1172618928529677 0.1106132506338421 1:4 2:6 3:6 4:3 5:3 6:3 7:3 8:3 9:3 10:3 11:3 12:7 13:7 17:4 18:4 19:5 20:13 21:13 22:13 23:2 
-0.3133288753372193 -0.2741733958707464 -0.3361484889499269 0.3170645660226906 0.3058865959565834 0.3286093774221228 0.2928691744620264 0.355135518130091 0.3000076097300922 0.2803966145100392 0.3792482755500194 0.3668985349135339 1:3 2:6 3:6 4:3 5:3 6:3 7:3 8:3 9:4 10:4 11:5 12:9 13:9 15:5 16:5 17:4 18:13 19:13 20:13 21:3 22:3 23:2 
-0.4189376560606563 -0.4685685631767531 -0.5722213112197859 0.5431300138619363 0.5237199824663905 0.5605715473568949 0.4998720416293987 0.606174953465679 0.5130857771651067 0.4788787627583964 0.6487540139035486 0.6253724542213469 1:2 2:6 3:5 4:2 5:3 6:3 7:3 8:2 9:2 10:3 11:3 12:8 13:9 15:4 16:4 17:4 18:10 19:11 20:13 21:1 22:2 23:2 
-0.4517924161641552 -0.5258949158381316 -0.6425841412227621 0.6081982209327838 0.5899858318012738 0.6298327006302673 0.5609364511307934 0.680954041985022 0.5761212948921145 0.5379643251945607 0.7288361470791367 0.7023769291601665 1:3 2:6 3:6 4:5 5:3 6:5 7:4 8:3 9:3 10:3 11:3 12:9 13:9 15:4 16:4 17:5 18:13 19:13 20:13 21:4 22:4 23:2 
-0.1922282019246176 -0.1798533288095799 -0.2169882822348343 -0.1901158874700225 0.1483859397131225 0.2181501916432241 0.138578103708625 0.2391104333959617 0.1898783285111223 0.1820832954578461 0.2317387623884938 0.247341021185353 1:6 2:8 3:4 4:2 5:2 6:2 7:2 8:2 9:4 10:3 11:3 12:8 13:8 16:5 17:6 18:7 19:6 20:6 21:8 22:9 23:7 
-0.1256358713198291 -0.1169914158325879 -0.1472554007730548 -0.1292366431473763 0.1379118364134047 0.1436324024750202 0.1287827159270896 0.1583579408250521 0.1300262450952901 0.1199812176493804 0.1715039420840162 0.1629541180420148 1:6 2:6 3:4 4:3 5:3 6:2 7:2 8:2 9:3 10:3 11:3 12:9 13:9 14:5 15:6 16:7 17:5 18:6 19:7 20:9 21:6 22:4 
-0.1095696552039462 -0.1025423589566389 -0.1278195072438568 -0.1101940733513266 0.1323860895953167 0.1256249369375217 0.1188631252429124 0.1378684761810741 0.1133481924785729 0.1053163450345695 0.149418310013411 0.1428518198583673 1:6 2:8 3:5 4:3 5:4 6:2 7:2 8:2 9:3 10:3 11:5 12:9 13:9 14:5 15:6 16:7 17:6 18:6 19:7 20:9 21:7 22:6 23:2 
-0.9141883883768626 -0.8574626018400155 -1 -0.9205119892665558 0.9599861527191123 1 0.9155951381752409 1 1 0.8747506350620127 1 1 1:3 2:6 3:2 4:1 5:2 6:1 7:1 8:1 9:2 10:2 11:1 12:3 13:2 15:3 16:3 17:5 18:3 19:3 20:4 21:4 22:2 
-0.2821679154745875 -0.2633063887082407 -0.3305322471609146 -0.2842601722201916 0.3143604391385556 0.3217067123425805 0.2968237501704001 0.3543853787463747 0.2922700542546502 0.2698997306250636 0.3842333789417224 0.3669907274158161 1:7 2:9 3:5 4:3 5:3 6:3 7:2 8:2 9:3 10:3 11:3 12:9 13:9 14:5 15:6 16:7 17:6 18:6 19:7 20:9 21:8 22:7 
-0.4201434218077686 -0.3933231823757862 -0.4921867078514542 -0.4225948696782701 0.4339330244589277 0.4804461418272478 0.4173653180087114 0.5288471203313873 0.4346198806203636 0.4024604523555005 0.5710044170437343 0.5472437668918491 1:6 2:8 3:7 4:3 5:3 6:2 7:2 8:2 9:4 10:3 11:3 12:9 13:9 14:5 15:8 16:8 17:6 18:6 19:7 20:9 21:7 22:5 
-0.2838973333395749 -0.2652102962208526 -0.3330151308730074 -0.2857241887979546 0.3642630592875317 0.3260502477870559 0.2758674020663387 0.3647395221803533 0.2859267633604323 0.2723462235195113 0.410088287235861 0.3684419468412566 1:6 2:8 3:4 4:2 5:2 6:2 7:2 8:3 9:3 10:3 11:3 12:8 13:8 16:5 17:6 18:7 19:6 20:6 21:7 22:10 23:7 
-0.4073813316284342 -0.3813933313596968 -0.477096659745395 -0.4102995347918929 0.4194280619352121 0.4650672817395414 0.4004282848996354 0.5122464237922132 0.422014641423695 0.3898505737249994 0.5536632859219353 0.5306869739786327 1:6 2:8 3:5 4:3 5:3 6:2 7:1 8:2 9:3 10:4 11:4 12:9 13:9 14:6 15:5 16:7 17:6 18:6 19:9 20:8 21:7 22:5 
-0.1804689493480348 -0.1697906403663964 -0.2100395308027654 -0.1832089364104606 0.1918368963409678 0.2064484935428521 0.1897949421768982 0.2315767940961551 0.2040263562011582 0.1702087808468211 0.228677793781059 0.2366737371280635 1:6 2:8 3:4 4:2 5:2 6:2 7:2 8:2 9:3 10:3 11:4 12:8 13:8 16:5 17:6 18:7 19:6 20:7 21:7 22:9 23:7 
-0.5097418546033901 -0.4775796350689108 -0.5980746769973437 -0.513918535684403 0.5304071378212015 0.5827975442558463 0.5079101191095112 0.6418442911841156 0.5293087427523699 0.4880935581006369 0.6938063908224402 0.6651534896603648 1:5 2:7 3:4 4:3 5:3 6:2 7:3 8:1 9:2 10:3 11:3 12:9 13:9 14:5 15:6 16:6 17:5 18:6 19:5 20:9 21:6 22:5 23:1 
-0.189959212029665 -0.1756263904770192 -0.233690327081173 -0.1900726056516084 0.1912887519993568 0.2163630896787996 0.1896795862960014 0.2394031038260849 0.1996586677220185 0.1851363493328663 0.2748332949530687 0.2468632622172128 1:6 2:8 3:4 4:2 5:2 6:2 7:2 8:2 9:3 10:3 11:4 12:8 13:8 16:5 17:6 18:7 19:7 20:6 21:7 22:9 23:7 
-0.1840057655078377 -0.1737846170945119 -0.2197864789462296 -0.1904879767173533 0.237793670167028 0.2111871840084497 0.2687096659733447 0.2302362038968837 0.2023694956731742 0.1781506644914675 0.2735580676501523 0.2432088606031451 1:6 2:8 3:4 4:2 5:3 6:2 7:2 8:2 9:3 10:3 11:3 12:8 13:8 16:5 17:6 18:7 19:6 20:6 21:8 22:9 23:7 
-0.05432073366733024 -0.05000410667361709 -0.06330380457579356 -0.05547037063916187 -0.07112105326300078 0.06134673420028533 0.01439670122260996 0.06701194855944148 0.05505681495840303 0.05205533511044864 0.07215153293562662 0.06884520281880185 1:5 2:7 3:4 4:4 5:5 6:5 7:5 8:3 9:3 10:3 11:5 12:8 13:5 14:1 15:4 16:7 17:6 18:6 19:10 20:13 21:9 22:6 
-0.206781488960549 -0.1918122000567159 -0.2359509153988339 -0.218990654558357 -0.2376775626397356 0.2321199466873682 0.1311071137903257 0.2563763797069971 0.2123816584724189 0.1934921439308643 0.2899449357128746 0.2580933807127112 1:5 2:7 3:5 4:2 5:3 6:5 7:5 8:4 9:2 10:2 11:4 12:7 13:5 16:1 17:4 18:6 19:6 20:8 21:9 22:13 23:9 
-0.1971081215624537 -0.1825678419125943 -0.2260100995359697 -0.1970037004288001 -0.2142028792303471 0.2210455076104716 0.2520473098703078 0.2415078915946024 0.2065939836517629 0.1872067686671045 0.2626510305287043 0.2477529349060827 1:6 2:8 3:5 4:3 5:4 6:5 7:5 8:3 9:3 10:3 11:5 12:7 13:5 15:4 16:6 17:7 18:6 19:9 20:13 21:9 22:6 23:2 
-0.06154056555951742 -0.0591988994701714 -0.07163197926016869 -0.06756500963267839 -0.07081678263843157 0.06924728711250787 0.09288664981189046 0.07670752084177872 0.07018438895427995 0.05598662393181689 0.05923958127359524 0.0799141914683244 1:5 2:6 3:3 4:2 5:3 6:5 7:5 8:4 9:2 10:2 11:5 12:7 13:5 17:5 18:6 19:6 20:7 21:9 22:13 23:8 
-0.06419515418165191 -0.0584151533213422 -0.07512430149093428 -0.06239133995923878 -0.05501015506172079 0.07327657136488858 0.1152669173097778 0.07467126485138982 0.06615643589964085 0.06896293765885404 0.08967731962052021 0.08082538395352101 1:5 2:7 3:4 4:3 5:4 6:5 7:5 8:3 9:2 10:2 11:4 12:7 13:5 17:4 18:7 19:7 20:7 21:9 22:13 23:9 
-0.09933975399548782 -0.0957347234795401 -0.1134889849601118 -0.09475737545729657 -0.1271098111639009 0.1098165483574642 0.01881036141285159 0.1212652704052887 0.09801299025845492 0.09786985528128214 0.1245383504458482 0.1272264668009657 1:5 2:7 3:4 4:2 5:3 6:5 7:6 8:3 9:2 10:2 11:4 12:7 13:6 17:5 18:6 19:6 20:7 21:9 22:13 23:10 
-0.340191491024517 -0.3169094406294296 -0.389749405102718 -0.3453058934564493 -0.3591861791141107 0.3809221644863537 0.3190626429730296 0.4143726243525813 0.3491494532328225 0.3228086396180014 0.4446940138215192 0.4275938000761771 1:5 2:7 3:4 4:3 5:5 6:5 7:5 8:5 9:3 10:3 11:5 12:7 13:5 15:4 16:6 17:7 18:8 19:9 20:13 21:9 22:6 
-0.07421899588204051 -0.07008534071022618 -0.08669156600286881 -0.07275753571556676 -0.08981357720498237 0.08389673436707831 0.1961336806470933 0.09118587288248393 0.07491498390566943 0.07563438260148331 0.09946353608806298 0.09386466199662295 1:6 2:7 3:5 4:3 5:5 6:6 7:5 8:3 9:3 10:3 11:6 12:7 13:5 14:1 15:5 16:7 17:6 18:7 19:9 20:13 21:10 22:6 
-0.1158019771196217 -0.1051319664354158 -0.1337159438932521 -0.1136495128901147 -0.08859298597053336 0.1320538248201805 0.2372969881594529 0.1429427898887882 0.1170312988123789 0.1070265711351726 0.1835372977732668 0.1442517857858935 1:5 2:7 3:3 4:2 5:3 6:6 7:6 8:3 9:2 10:2 11:4 12:7 13:5 17:5 18:6 19:6 20:6 21:9 22:13 23:10 
-0.2274934236438378 -0.2121580480110207 -0.2604254065757995 -0.2260976969251856 -0.2863756316758941 0.2556429975238969 0.3838911458045705 0.2814346907049686 0.2339401776974657 0.2180658961976808 0.3173307806239184 0.2869310739873249 1:6 2:7 3:4 4:2 5:4 6:5 7:5 8:3 9:2 10:3 11:4 12:7 13:5 16:1 17:5 18:6 19:7 20:6 21:10 22:13 23:9 
-0.3211105294753404 -0.2988480952960285 -0.3680113381001175 -0.3201396524573785 -0.3377156065589368 0.3616771360369236 0.5745272607023699 0.3923606789734583 0.3299892546162246 0.3062157268499753 0.4250701185522462 0.4048724395852327 1:5 2:7 3:4 4:3 5:5 6:7 7:5 8:3 9:3 10:3 11:5 12:7 13:5 15:6 16:6 17:6 18:6 19:9 20:13 21:10 22:6 
-0.744519957269032 -0.6948073065263304 -0.855970574389509 -0.7456983126963137 -0.8139939534103017 0.8385463702454438 0.7290919186944498 0.9098336160323043 0.7692011090704872 0.7099310871827507 0.975260947920056 0.9387412758116026 1:4 2:6 3:3 4:2 5:3 6:5 7:4 8:3 9:2 10:2 11:2 12:6 13:5 17:2 18:6 19:3 20:6 21:8 22:13 23:9 
-0.555846646808031 -0.5180748691305731 -0.639759770579434 -0.5545478337281006 -0.619226005483912 0.6255926040425612 0.527450396630434 0.6825333223801252 0.5692384323698698 0.5328460861083003 0.7509119117745481 0.7007884048740738 1:5 2:7 3:3 4:2 5:3 6:5 7:5 8:3 9:2 10:3 11:7 12:7 13:5 15:1 16:2 17:4 18:6 19:7 20:6 21:9 22:13 23:9 
-0.1720562231741292 -0.1606277151237062 -0.1975642725192462 -0.1787083492581716 -0.2113836700327257 0.1925344934571463 0.1218085020625934 0.2087984429657561 0.1742496368609535 0.1630635270410947 0.2253061705093595 0.2162820691647683 1:5 2:7 3:4 4:3 5:4 6:5 7:5 8:3 9:3 10:3 11:5 12:7 13:7 15:4 16:6 17:6 18:6 19:9 20:13 21:9 22:7 23:1 
-0.03492860249989845 -0.03319180018602085 -0.03997180803986658 -0.03126755159842273 -0.03454497060826313 0.04008615132261979 0 0.04316168112166963 0.03353498658194391 0.03611202929908756 0.0479054822425696 0.04522663951873654 1:5 2:7 3:5 4:3 5:4 6:5 7:6 8:4 9:3 10:3 11:5 12:7 13:5 15:4 16:6 17:8 18:6 19:9 20:13 21:10 22:6 
-0.2609790493216659 -0.2430068858880181 -0.2997007563723519 -0.2625770614235378 -0.266417592819669 0.2932803226529126 0.1549769280478357 0.3177964855559164 0.2666072541054867 0.2461377279949407 0.3399091753000208 0.3281858294791615 1:5 2:7 3:5 4:3 5:4 6:5 7:6 8:3 9:3 10:4 11:5 12:7 13:5 15:4 16:6 17:6 18:6 19:11 20:13 21:10 22:6 
-0.1529460093624045 -0.1436999661070707 -0.1765166114182669 -0.1517926340928694 -0.1787926427132715 0.173423944297968 0.2037290990905721 0.1872106314608296 0.1584745674160653 0.1456950855545878 0.2003222126040752 0.1939705423009376 1:5 2:9 3:4 4:3 5:4 6:5 7:5 8:3 9:3 10:3 11:5 12:7 13:5 14:1 15:4 16:6 17:6 18:6 19:9 20:13 21:9 22:7 
-0.02115172117357404 -0.02144810684363785 -0.02532611223969665 -0.02326132029953576 -0.02554012542909522 -0.02405824622921943 0.02211892707915556 0.02681736913801846 0.02284210267010681 0.01980173520920905 0.02898120934181144 0.02725032230241993 1:2 2:3 3:4 4:4 5:4 6:4 7:4 8:5 9:8 10:8 11:3 12:2 13:2 16:3 17:4 18:4 19:5 20:5 21:6 22:13 23:13 
-0.6321613757049847 -0.5928292565382824 -0.7440261438077461 -0.6471644229311928 -0.6948526093039323 -0.6700019509283756 0.6380352040176411 0.7942473027969734 0.656986985309684 0.6081114852563468 0.8592310255942642 0.8224875459782884 1:3 2:4 3:3 4:3 5:4 6:4 7:5 8:3 9:9 10:7 11:3 12:3 13:3 14:1 15:3 16:2 17:4 18:3 19:3 20:11 21:12 22:12 23:3 
-0.003289924705626349 -0.002419890470354396 -0.002704896134803496 -0.001854453693758838 -0.002413243127591622 -0.002946221858517357 0.002284542163263534 0.002743918513887187 0.002608279513172617 0.00232329998357985 0.003935184870056229 0.001769665512550421 1:3 2:4 3:5 4:5 5:5 6:6 7:6 8:5 9:10 10:10 11:3 12:4 13:3 14:5 15:4 16:4 17:5 18:5 19:4 20:13 21:13 22:13 23:3 
-0.4409532138164543 -0.4131172339420147 -0.5183754639225585 -0.4458766906539646 -0.4823198677826699 -0.4665460649861541 0.4449719288442121 0.5545962194117983 0.4580230996591531 0.4243295514959131 0.5990355873802103 0.5753452716668341 1:2 2:3 3:4 4:4 5:5 6:4 7:5 8:5 9:8 10:8 11:3 12:2 13:2 16:3 17:5 18:4 19:5 20:6 21:6 22:13 23:13 
-0.7030624535963553 -0.6592670346917937 -0.8269267132260338 -0.7117652342623252 -0.7726919914856007 -0.7447534339085714 0.7093641043826111 0.8837150028373347 0.7306394188314612 0.6761530078011871 0.9550482169925097 0.9151618619971399 1:2 2:2 3:4 4:1 5:5 6:5 7:4 8:5 9:8 10:8 11:3 12:3 13:2 14:3 15:4 16:1 17:4 18:2 19:3 20:9 21:13 22:11 23:2 
-0.1372558289485792 -0.1295805787771207 -0.1613866453412962 -0.1387474601779608 -0.1516415716561111 -0.1446700361465094 0.13889278964557 0.1725075516377564 0.1438078483485317 0.1312848589341764 0.1867211965523161 0.1802302181948406 1:4 2:3 3:5 4:5 5:6 6:6 7:5 8:5 9:10 10:10 11:3 12:3 13:3 14:4 15:4 16:4 17:5 18:5 19:4 20:13 21:13 22:12 23:4 
-0.264091129367179 -0.2481460172455152 -0.3088087329885105 -0.2657629342948234 -0.290890328532795 -0.2791478984044733 0.2675582676706374 0.3310157886743063 0.2739989624337202 0.253320381801506 0.3585140965215418 0.3432889169801078 1:4 2:4 3:6 4:6 5:5 6:5 7:6 8:5 9:10 10:10 11:4 12:3 13:3 14:3 15:5 16:4 17:5 18:5 19:5 20:13 21:13 22:13 23:5 
-0.2515523665116294 -0.2350377749368795 -0.2947644405198251 -0.2548076722155882 -0.276825532212245 -0.2647780842213164 0.2546863819164089 0.315857546064958 0.2609812309488234 0.2426435015520169 0.3428877062085186 0.3282401692305686 1:2 2:3 3:4 4:4 5:4 6:4 7:4 8:4 9:9 10:8 11:2 12:2 13:2 15:1 16:3 17:4 18:4 19:5 20:5 21:4 22:13 23:13 
-0.2532247189370409 -0.2345275226701052 -0.2996142787078034 -0.2549434437234359 -0.2758558289681289 -0.2664898172283564 0.2537057458259879 0.3182483016507337 0.2619370165559567 0.2432771426738088 0.3427513221573085 0.3277233860079272 1:2 2:3 3:4 4:5 5:4 6:4 7:4 8:4 9:8 10:8 11:2 12:2 13:2 16:3 17:4 18:5 19:5 20:5 21:4 22:13 23:13 
-0.3011946197891808 -0.2820503775727702 -0.3543037602130481 -0.3052599299577549 -0.3306967418063409 -0.318791743977387 0.3035148913340341 0.3781098028266718 0.3127263895210651 0.2897773667300378 0.4090123901992622 0.3919254284519751 1:3 2:4 3:5 4:6 5:5 6:5 7:5 8:5 9:10 10:10 11:3 12:4 13:5 14:3 15:4 16:5 17:5 18:6 19:6 20:13 21:13 22:13 23:2 
-0.0549253341910029 -0.05717875192564789 -0.06415302477937179 -0.05842635054728604 -0.06344197932740134 -0.06100520268211042 0.05634980679525545 0.06870482312012914 0.05944640630533243 0.05276839973814725 0.07405172799490431 0.07399276392572662 1:2 2:3 3:4 4:4 5:4 6:5 7:4 8:4 9:8 10:8 11:2 12:2 13:2 16:3 17:4 18:4 19:5 20:6 21:4 22:13 23:13 
-0.2458621951891455 -0.2306959088252643 -0.2887177910718788 -0.2496720534593606 -0.269967985710133 -0.2602142936791282 0.2479786331713975 0.308539455170898 0.2553311558652144 0.236388904675665 0.3335719306416676 0.3195224918857336 1:3 2:4 3:5 4:7 5:5 6:5 7:5 8:6 9:10 10:10 11:3 12:3 13:3 14:3 15:4 16:6 17:5 18:5 19:5 20:13 21:13 22:13 23:2 
-0.09641950490238721 -0.08954927944304722 -0.1154371528190738 -0.09971145250253387 -0.1046530661905521 -0.1034814496902726 0.09642713576192863 0.1220076012415095 0.0996758072987147 0.09388980239317338 0.1313650509935964 0.12553710664048 1:4 2:4 3:6 4:6 5:5 6:5 7:5 8:5 9:10 10:10 11:3 12:3 13:3 14:3 15:4 16:4 17:5 18:5 19:4 20:13 21:13 22:13 23:5 
-0.1071761622065204 -0.09755075707835244 -0.1264920581778843 -0.1074357026504827 -0.1164694018249669 -0.114334303997035 0.1069311095042845 0.1345681909313111 0.1100518131155028 0.1030981907926042 0.146769898780125 0.1372885518502311 1:2 2:3 3:4 4:4 5:4 6:5 7:4 8:4 9:8 10:8 11:2 12:3 13:2 16:3 17:5 18:4 19:5 20:5 21:5 22:13 23:13 
-0.1525561192950262 -0.1432494037350629 -0.1792976726429081 -0.1539789901635288 -0.1675945270866699 -0.1613298215209501 0.1538266038439819 0.1917334839249675 0.1587728159000093 0.1467230355622871 0.2068290016614297 0.1986803802999439 1:3 2:4 3:5 4:5 5:5 6:6 7:5 8:5 9:10 10:10 11:5 12:3 13:3 14:3 15:4 16:4 17:6 18:6 19:5 20:13 21:13 22:13 23:2 
-0.2468824418922031 -0.2314043716542154 -0.2912378241880945 -0.2514950905799131 -0.2716194257939053 -0.2619607691276938 0.2493839539090805 0.3111443769175407 0.2562169076236241 0.2384341199804094 0.3357513892638868 0.322705071745545 1:3 2:4 3:5 4:5 5:5 6:6 7:7 8:5 9:10 10:10 11:3 12:3 13:3 14:4 15:5 16:4 17:6 18:5 19:4 20:13 21:13 22:13 23:2 
-0.1741055305494122 -0.1624943304542569 -0.1978846075336365 -0.1760310479958096 -0.1826030029100157 -0.1286861866145118 -0.1949142737373919 0.2121735363460381 0.1777453184220633 0.1698201457256717 0.2283825797413345 0.2167201466902842 1:8 2:8 3:2 4:3 5:5 6:7 7:5 8:3 9:3 10:3 11:6 12:7 13:4 15:8 16:9 17:8 18:6 19:8 20:9 21:9 22:7 
-0.2712023726582737 -0.252450799077414 -0.3089128185423246 -0.2693690425653164 -0.2935706982279027 -0.2356963022740928 -0.3014852632995895 0.3268411465682424 0.2751100963250603 0.2570999526284453 0.3484293839118141 0.3357170411339246 1:8 2:8 3:3 4:2 5:5 6:7 7:5 8:3 9:3 10:3 11:7 12:7 13:4 14:1 15:9 16:9 17:6 18:6 19:8 20:9 21:10 22:7 
-0.3721105669310159 -0.3449584924642112 -0.4195141789129332 -0.3701560255260692 -0.4174584266225502 -0.4500269181190103 -0.4137955017687346 0.4463262260718789 0.3774574409245437 0.3537110203062873 0.4880575068776689 0.4605671177052006 1:7 2:7 3:3 4:2 5:5 6:7 7:3 8:2 9:2 10:2 11:4 12:7 13:6 17:9 18:8 19:6 20:6 21:8 22:10 23:10 
-0.1516367670452383 -0.1443972505417839 -0.1727268150724395 -0.1530118649689922 -0.1648369138066705 -0.1571551259690261 -0.1713872432883005 0.1931473537776322 0.1531725014865704 0.142850081478954 0.1886644490080185 0.1912009204095637 1:7 2:7 3:2 4:2 5:6 6:8 7:3 8:2 9:2 10:2 11:4 12:8 13:4 16:2 17:8 18:8 19:6 20:6 21:8 22:10 23:9 
-0.3554006745301543 -0.329733981965553 -0.4022794607161067 -0.3537498128160271 -0.3655510043662123 -0.3662971345395135 -0.3954078580457823 0.4266838851708875 0.3609637251082222 0.346832105533505 0.4759438221289613 0.4402994847610477 1:7 2:7 3:2 4:3 5:6 6:7 7:4 8:2 9:2 10:3 11:4 12:7 13:4 17:8 18:9 19:7 20:6 21:9 22:9 23:10 
-0.1635324922707902 -0.1513626012021082 -0.1850965551432391 -0.1598687350404562 -0.181952794510618 -0.281296505748673 -0.180222766736335 0.1937761011112702 0.1642498692868017 0.1524020606969746 0.2073854195007128 0.2010930558044241 1:8 2:8 3:2 4:4 5:5 6:7 7:4 8:3 9:3 10:3 11:5 12:7 13:4 15:8 16:8 17:7 18:6 19:9 20:9 21:9 22:7 
-0.1921311699692299 -0.1764749541357445 -0.2189201965579368 -0.1901007101048034 -0.2002909418226511 -0.2294881811633058 -0.2115148316751846 0.2215392247037899 0.1933363807845221 0.1827174212249011 0.2563089664395666 0.2348132404723568 1:7 2:7 3:2 4:2 5:7 6:7 7:3 8:2 9:2 10:2 11:5 12:7 13:4 16:2 17:8 18:8 19:6 20:6 21:8 22:10 23:9 
-0.01704342474004121 -0.01697104926233105 -0.02468029046487552 -0.01695725353758342 -0.01189504600734028 -0 -0.01942598192600562 0.0258604621206576 0.01706209406213351 0.01637356658694922 0.04536899925188442 0.02110418074223712 1:7 2:7 3:3 4:2 5:5 6:7 7:3 8:2 9:2 10:2 11:5 12:7 13:5 14:1 17:8 18:9 19:6 20:6 21:8 22:9 23:10 
-0.2386545608843822 -0.2196279240935456 -0.2716718362718617 -0.2365733507164104 -0.2773008663345869 -0.2045574607884895 -0.2636793032551304 0.2931767944918171 0.2474142883706738 0.222880556678327 0.3344403284094695 0.2946797634640216 1:8 2:7 3:3 4:3 5:6 6:7 7:3 8:2 9:2 10:2 11:4 12:7 13:4 16:2 17:8 18:8 19:6 20:7 21:9 22:9 23:9 
-0 -0 -0 -0 -0 -0.08480753326402889 -0 0 0 0 0 0 1:7 2:7 3:3 4:2 5:5 6:7 7:4 8:2 9:2 10:2 11:4 12:7 13:4 16:1 17:8 18:8 19:6 20:6 21:9 22:9 23:9 
-0.2876225730908497 -0.2666152806005977 -0.3258075864813491 -0.2872852278110627 -0.3094167738188338 -0.3124695682484445 -0.3208547863475719 0.346583377539398 0.2915518042195819 0.2747610339847396 0.3801253106630577 0.3573360261072757 1:8 2:8 3:3 4:2 5:5 6:8 7:5 8:3 9:3 10:3 11:5 12:8 13:4 15:8 16:8 17:6 18:7 19:8 20:9 21:10 22:8 23:1 
-0.2045075321107951 -0.1920231912238988 -0.2336202386782506 -0.2047283055086001 -0.2339867519376919 -0.2553353431574488 -0.2288713296567984 0.2647314104362814 0.2124945410767088 0.1967626990674728 0.2560977809193321 0.256465758167897 1:7 2:7 3:2 4:2 5:5 6:7 7:3 8:2 9:2 10:2 11:6 12:7 13:5 16:1 17:8 18:8 19:6 20:7 21:8 22:9 23:10 
-0.6059395214534091 -0.5639507550690883 -0.6885753086191519 -0.6039512634771856 -0.6548347775425921 -0.648294940697519 -0.6745273284983329 0.7299937963238238 0.6228443286138742 0.5753677692843149 0.7837921765475329 0.7519281895326112 1:7 2:8 3:2 4:2 5:6 6:7 7:3 8:3 9:3 10:3 11:4 12:6 13:3 15:8 16:6 17:6 18:6 19:7 20:9 21:8 22:7 
-0.5128454426902725 -0.4767646731857051 -0.5827065450319098 -0.5104574333643364 -0.5547001538470434 -0.5592424947185325 -0.5699435576302925 0.6173493071092842 0.5237258652630471 0.4878259588908138 0.6667297399861634 0.6357111552681689 1:8 2:7 3:2 4:2 5:5 6:6 7:4 8:3 9:3 10:4 11:7 12:6 13:4 15:7 16:9 17:5 18:6 19:7 20:9 21:9 22:7 23:2 
-0 -0 -0 -0 -0 -0.1591299209275679 -0 0 0 0 0 0 1:8 2:9 3:3 4:2 5:5 6:7 7:5 8:3 9:3 10:3 11:5 12:7 13:4 14:1 15:8 16:8 17:6 18:6 19:8 20:10 21:9 22:7 23:1 
-0.1586275702893426 -0.1518334571793411 -0.2093999570028118 -0.1663951590823467 -0.1790410373450464 -0.1735961653279373 -0.1897351822458503 -0.1619704536755449 0.1688839229258983 0.1127289721114335 0.1551324618394087 0.2193007219178341 1:5 2:7 3:5 4:4 5:3 6:8 7:9 8:8 9:6 10:6 11:8 12:7 13:5 14:8 15:9 16:11 17:10 18:7 19:6 20:8 21:10 22:8 23:4 
-0.1964255745879407 -0.184497491932004 -0.1706379335400737 -0.202433566389222 -0.2177340060613101 -0.2129885607178243 -0.2344947088633677 -0.2025528499878016 0.2065785798179703 0.1465949873638879 0.1859176362835236 0.2688340475824977 1:5 2:7 3:5 4:3 5:3 6:7 7:9 8:9 9:6 10:7 11:8 12:7 13:5 14:6 15:9 16:11 17:9 18:9 19:7 20:8 21:10 22:8 23:4 
-0.06693555515645157 -0.06407034415942993 -0.1143832695763995 -0.06999842803706613 -0.07568520052948401 -0.07332118521723616 -0.08071555112578599 -0.06884240678750277 0.07133489886867921 0 0.07971962429262602 0.09258586605723225 1:5 2:8 3:6 4:3 5:3 6:7 7:9 8:8 9:6 10:6 11:7 12:7 13:5 14:6 15:9 16:11 17:9 18:7 19:6 20:8 21:10 22:8 23:6 
-0.02343741333295752 -0.01896160677456702 -0.02192902502896907 -0.02127053025455839 -0.02249963677736988 -0.02237790879244522 -0.02547967955662985 -0.02149621356328738 0.0218667200334504 0 0 0.02907431063281221 1:5 2:7 3:5 4:3 5:3 6:7 7:9 8:8 9:6 10:6 11:8 12:8 13:5 14:8 15:9 16:11 17:9 18:7 19:6 20:8 21:10 22:8 23:4 
-0.1866646124226564 -0.1753814151622846 -0.1847218017876004 -0.1917052931273349 -0.2048203435413859 -0.199667446704314 -0.2198257371695237 -0.1897095636796782 0.1946029320374196 0.4292663111142098 0.1555755989384649 0.2545735429022044 1:5 2:6 3:4 4:3 5:4 6:7 7:8 8:6 9:5 10:4 11:6 12:6 13:5 16:6 17:9 18:11 19:11 20:7 21:7 22:8 23:10 
-0.7644844836195592 -0.7169554258492027 -0.9427052972097623 -0.7879038974258911 -0.852011868742784 -0.8281774129085709 -0.9036890452343125 -0.785750865955852 0.8516274227490518 0.7314428746069114 1 1 1:4 2:4 3:1 4:2 5:3 6:5 7:2 8:4 9:2 10:2 11:1 12:5 13:3 16:3 17:7 18:6 19:3 20:4 21:2 22:6 23:7 
-0.1128166664889741 -0.1059537925971759 -0.1562606728985826 -0.1165979522308493 -0.1257243261050777 -0.1225749118048987 -0.1300278615849423 -0.1120078839966447 0.1180587924788681 0.1127922167873215 0.1540107807830654 0.1538165680487819 1:5 2:7 3:5 4:3 5:3 6:7 7:9 8:9 9:8 10:6 11:7 12:7 13:5 14:6 15:9 16:11 17:9 18:8 19:7 20:9 21:10 22:8 23:4 
-0 -0 -0 -0 -0 -0 -0 -0 0 0 0.174898934249162 0 1:4 2:6 3:4 4:3 5:3 6:7 7:8 8:6 9:4 10:4 11:6 12:6 13:5 16:6 17:9 18:11 19:9 20:6 21:7 22:8 23:10 
-0.7646250924345693 -0.7211317305054096 -0.9311670796907944 -0.7886700574673611 -0.8682956160881539 -0.8266098670010451 -0.9039501771890222 -0.7830089467362037 0.8027805549317221 0.7318230216389441 1 1 1:1 2:2 3:1 4:1 5:1 6:3 7:5 8:3 9:3 10:3 11:4 12:4 13:2 14:1 15:3 16:6 17:5 18:3 19:1 20:2 21:6 22:4 23:2 
-0.08464936345010114 -0.07963574802885053 -0.02192280771876708 -0.08752131522300366 -0.09381585612981337 -0.0916399813657051 -0.1041979250636685 -0.08934992821268276 0.0890337221024597 0.1363019123292208 0 0.1165596817013433 1:5 2:7 3:6 4:3 5:3 6:7 7:9 8:8 9:8 10:6 11:7 12:7 13:5 14:6 15:9 16:11 17:10 18:7 19:7 20:9 21:10 22:8 23:4 
-0.1807472925201944 -0.1683347751451675 -0.324534193185315 -0.1855488900860356 -0.1981450134893123 -0.1945925092310106 -0.2111150080412223 -0.1828439020188679 0.1887109464232284 0.3304097397155573 0.5423761748017057 0.2448450246776959 1:5 2:7 3:7 4:4 5:3 6:7 7:9 8:8 9:6 10:6 11:7 12:7 13:5 14:6 15:9 16:11 17:9 18:7 19:6 20:9 21:10 22:9 23:5 
-0.01719797716511562 -0.0145269714172007 -0.1022203630924292 -0.01706829257611231 -0.02407630277144281 -0.02232408477093422 -0.01966429439732915 -0.02894899480618747 0.01677570395274152 0 0 0.02390317506859072 1:5 2:6 3:4 4:4 5:3 6:7 7:8 8:6 9:4 10:5 11:6 12:6 13:5 16:7 17:9 18:11 19:10 20:8 21:6 22:8 23:10 
-0 -0 -0.02499435380166447 -0 -0 -0 -0 -0 0 0 0 0 1:4 2:7 3:5 4:3 5:3 6:7 7:9 8:8 9:6 10:6 11:7 12:7 13:5 14:6 15:9 16:11 17:9 18:7 19:6 20:7 21:10 22:8 23:4 
-0.1016471080716626 -0.09384464420395873 -0.1123180306732531 -0.1037591370775031 -0.1113150968729643 -0.1085679551155116 -0.1200364143510912 -0.1047838454141221 0.1056631024509025 0.0294875463410912 0.245661113280334 0.1376778301835886 1:5 2:7 3:5 4:3 5:3 6:9 7:9 8:8 9:6 10:6 11:7 12:7 13:5 14:6 15:9 16:11 17:9 18:7 19:6 20:8 21:10 22:9 23:5 
-0.1821698018208562 -0.1717051645605057 -0.1519661065704533 -0.1886200878228458 -0.1975995678445233 -0.1939617977831641 -0.2150689233704959 -0.1772468153153294 0.1918681886004518 0.1364068793406021 0.2079123367580815 0.2470019002085527 1:5 2:6 3:4 4:4 5:3 6:7 7:8 8:6 9:4 10:4 11:6 12:6 13:5 16:6 17:9 18:11 19:9 20:9 21:6 22:8 23:10 
-0.1283211791532384 -0.1201556699142347 -0.2014420756424687 -0.1323212285092558 -0.1422100259430032 -0.1382886553581803 -0.1497899235589562 -0.1332166480868886 0.1334250469441306 0.3683216443275268 0.4206954520016439 0.1741513534987792 1:5 2:7 3:5 4:3 5:5 6:7 7:9 8:8 9:6 10:6 11:7 12:7 13:5 14:6 15:9 16:11 17:10 18:7 19:7 20:8 21:10 22:8 23:4 
-0.1400428143721096 -0.1322104425489046 -0.2315108433698206 -0.1450587087483264 -0.1523863610777942 -0.1453320718609177 -0.1666807304460876 -0.1257417467371882 0.1471436920131851 0.2641676141715551 0.6161736696276129 0.1932656997820884 1:5 2:6 3:5 4:3 5:3 6:7 7:8 8:6 9:4 10:4 11:5 12:6 13:6 16:6 17:9 18:12 19:9 20:7 21:6 22:8 23:11 
-0 -0 -0 -0 -0 -0 -0 -0 0 0 0.02235089868150111 0 1:5 2:7 3:6 4:3 5:4 6:7 7:9 8:8 9:6 10:6 11:7 12:7 13:5 14:6 15:9 16:11 17:9 18:7 19:8 20:8 21:10 22:8 23:4 
-0.1596915728654024 -0.1505798037098275 -0.1688884029190954 -0.1647692576578224 -0.1767891779080629 -0.1731073855122591 -0.1883669520819488 -0.1659982770621339 0.1671359860212711 0.07770692648758826 0.2030372616217134 0.218876316467923 1:7 2:7 3:5 4:3 5:3 6:7 7:9 8:8 9:6 10:6 11:7 12:7 13:5 14:7 15:10 16:11 17:9 18:7 19:6 20:8 21:10 22:8 23:4 
-0 -0 -0.01047053972932619 -0 -0 -0 -0 -0 0 0 0 0 1:6 2:8 3:5 4:4 5:3 6:7 7:9 8:8 9:6 10:6 11:7 12:7 13:5 14:7 15:9 16:12 17:9 18:7 19:6 20:8 21:10 22:8 23:5 
-0 -0 -0 -0 -0 -0 -0 -0 0 0 0.2377330074783878 0 1:5 2:6 3:5 4:3 5:4 6:8 7:8 8:6 9:4 10:4 11:5 12:6 13:5 16:6 17:9 18:11 19:10 20:8 21:7 22:8 23:10 
-0.3852852146764859 -0.3613574703716825 -0.443491438736977 -0.3977113163049246 -0.425257392959039 -0.4164215290209844 -0.455961403691527 -0.3903418823502258 0.4044228392930301 0.27701646991451 0.4108934015713731 0.5255571116125187 1:5 2:6 3:4 4:3 5:3 6:8 7:8 8:7 9:4 10:5 11:7 12:6 13:5 15:2 16:7 17:9 18:11 19:10 20:7 21:7 22:8 23:10 
-0.5042255704061367 -0.4727716759184063 -0.6885652324275753 -0.5193798972228315 -0.5712088582690883 -0.565621683785441 -0.5957572168870334 -0.57437139738486 0.5284478943532533 0.5305944363783122 1 0.687904057673394 1:5 2:6 3:5 4:2 5:3 6:7 7:6 8:6 9:5 10:3 11:5 12:6 13:5 16:5 17:9 18:10 19:7 20:7 21:7 22:9 23:10 
-0.2357328115554137 -0.2201564450186323 -0.2707360083001784 -0.2364668079918743 -0.2654859886713899 -0.2467096867925178 -0.2663027389219308 -0.2449482279888172 -0.2907383401416102 0.2265687982272434 0.3115049693239969 0.2996397362423022 1:9 2:9 3:3 4:2 5:2 6:2 7:2 8:3 9:2 10:4 11:2 12:4 13:3 15:4 16:4 17:6 18:8 19:6 20:7 21:5 22:4 23:3 
-0.05706765133251106 -0.05224481978198621 -0.06423815287986906 -0.05492327387733263 -0.05787866920904983 -0.05948058666914696 -0.06289526895899353 -0.04919770763732013 -0.06560266593854096 0.05333039141204276 0.07270478673560812 0.07152017017624411 1:9 2:9 3:2 4:2 5:2 6:2 7:2 8:3 9:3 10:3 11:2 12:3 13:4 15:2 16:4 17:6 18:8 19:7 20:7 21:5 22:4 23:3 
-0.2092544851276717 -0.1956763788331858 -0.2387229588355604 -0.2081165628366855 -0.2255162867254819 -0.2090604946197708 -0.2345168713298438 -0.2066354935014041 -0.2544992971978445 0.1986743157132304 0.276613586180601 0.2643694836388816 1:7 2:7 4:1 5:2 6:2 7:2 8:2 9:2 10:3 11:2 12:3 13:3 17:2 18:4 19:6 20:8 21:6 22:5 23:5 
-0.01603745126274516 -0.01548411757484727 -0.01955573302359654 -0.0168598019306586 -0 -0.01679432872418247 -0.01707086610893103 -0.01983940216283516 -0.01921332979034885 0.01491370598535687 0.01413880634862576 0.01565947238535829 1:9 2:9 3:2 4:3 5:2 6:3 7:2 8:3 9:2 10:3 11:2 12:3 13:3 15:2 16:4 17:6 18:8 19:7 20:7 21:5 22:4 23:3 
-0.8557257667026886 -0.7965163931055582 -0.9791740721488382 -0.8542300815861988 -0.9742783520737845 -0.8894818733742307 -0.9574815114239518 -0.8507475172729484 -1 0.8142903801561729 1 1 1:4 2:6 3:2 4:2 5:2 6:1 7:2 8:2 9:2 10:2 11:2 12:2 13:4 16:1 17:6 18:8 19:5 20:4 21:3 22:3 23:3 
-0.07380372405176917 -0.07000305452472461 -0.08609637480853784 -0.07547226906407792 -0.08340477344413448 -0.0763109487907595 -0.08394636324361832 -0.07522083779273274 -0.09095177709491221 0.07147443768472657 0.0975903236282164 0.09384406888005516 1:7 2:7 4:1 5:2 6:2 7:2 8:3 9:2 10:4 11:2 12:4 13:3 17:2 18:5 19:6 20:8 21:7 22:6 23:5 
-0.03569369335138489 -0.03232022950098072 -0.04116745284819266 -0.03622320072909962 -0.04266319920493444 -0.04039704760185026 -0.04072047358789799 -0.03395218759858734 -0.04342506666531654 0.03422880476826182 0.04518053806313014 0.0439903469985515 1:7 2:7 4:1 5:2 6:2 7:2 8:3 9:3 10:3 11:2 12:3 13:3 17:2 18:4 19:6 20:8 21:6 22:7 23:5 
-0.1394054282759266 -0.1279912498053923 -0.1568925799197613 -0.13733678581003 -0.1369217194164573 -0.1402578251551946 -0.1541339306591698 -0.1356858179209637 -0.1749711623593253 0.1308012668638524 0.1801235619972101 0.1742942005676991 1:7 2:7 4:1 5:2 6:2 7:2 8:4 9:2 10:3 11:2 12:3 13:3 17:2 18:4 19:6 20:8 21:6 22:6 23:6 
-0.3669798449625695 -0.3410140168064909 -0.4192794597067409 -0.3659755445314539 -0.3878731771231557 -0.3805181480179581 -0.4106006214170616 -0.3623722976546323 -0.4519334133581089 0.3488951523018271 0.48594313650075 0.4639198418501999 1:9 2:9 3:3 4:2 5:2 6:3 7:3 8:3 9:2 10:3 11:2 12:3 13:3 15:2 16:4 17:7 18:10 19:6 20:6 21:5 22:4 23:3 
-0.2478599224957899 -0.2302563196155316 -0.2820829743863316 -0.2459956428535867 -0.2688894290622481 -0.2574157392259431 -0.2762969309048634 -0.2435555243740233 -0.3002683026228311 0.2356056242817492 0.3232046510193207 0.3110990624620034 1:9 2:10 3:3 4:2 5:2 6:2 7:2 8:4 9:2 10:3 11:2 12:4 13:3 14:1 15:3 16:4 17:7 18:8 19:6 20:6 21:6 22:4 23:3 
-0.3605760082407701 -0.3353963677193058 -0.4116218736276761 -0.3606954542212176 -0.4402986397953969 -0.3746507235162303 -0.4042663958585419 -0.3574164485649604 -0.4565076029206991 0.3431574071391729 0.5009708100557398 0.4715606434951592 1:7 2:9 3:2 4:2 5:2 6:2 7:2 8:2 9:2 10:2 11:2 12:2 13:3 15:2 16:3 17:5 18:7 19:6 20:5 21:5 22:4 23:2 
-0.382952456680939 -0.3559936497723178 -0.4373877204057625 -0.3825733468576347 -0.4096404703286263 -0.4167824001200424 -0.4288262976503145 -0.3833892499427385 -0.4655676874057835 0.3646808916739285 0.5027070526465318 0.4816178105239574 1:7 2:7 3:1 4:2 5:2 6:3 7:3 8:3 9:2 10:3 11:2 12:3 13:3 17:2 18:5 19:6 20:9 21:7 22:7 23:5 
-0.1373885807873394 -0.128135368189315 -0.1569829516231271 -0.1366547495262158 -0.1442961239393866 -0.1368452316010293 -0.152575717963732 -0.1360338161098442 -0.1691662090545043 0.1305462489693064 0.180749588732784 0.1734430669893227 1:7 2:7 4:2 5:2 6:2 7:2 8:3 9:3 10:3 11:3 12:3 13:3 16:1 17:2 18:5 19:7 20:8 21:6 22:6 23:5 
-0.05260981032509704 -0.0498576989770461 -0.06248593000672657 -0.05418576338086986 -0.05652235824358382 -0.05592773791629414 -0.06080193155137553 -0.06024075147427291 -0.06626987116638358 0.05112584702455096 0.06809714612604424 0.06525778499209701 1:9 2:9 3:2 4:2 5:2 6:2 7:3 8:4 9:2 10:3 11:2 12:3 13:4 15:3 16:4 17:6 18:8 19:6 20:6 21:6 22:5 23:3 
-0.2989980013201172 -0.2793132557535963 -0.3432255047694641 -0.2997131318890483 -0.3385160149165705 -0.3175181497164952 -0.3352582000634875 -0.3015086990532216 -0.3672613654443871 0.2853362458306978 0.3926876179942193 0.3769094656419276 1:8 2:7 3:1 4:1 5:2 6:2 7:2 8:3 9:2 10:3 11:3 12:3 13:4 16:1 17:3 18:4 19:6 20:8 21:7 22:6 23:6 
-0.1608864525298572 -0.1493153379043754 -0.1828461144632619 -0.1607172918234747 -0.1712621659386471 -0.1665665050226822 -0.1783521202563593 -0.1563842748945009 -0.191984854837118 0.1513114815021229 0.2061974609911657 0.1979085210352595 1:9 2:9 3:4 4:2 5:2 6:2 7:2 8:3 9:2 10:4 11:2 12:3 13:3 15:3 16:5 17:6 18:8 19:6 20:6 21:6 22:4 23:3 
-0.1355179100072791 -0.1251989537563763 -0.1512375879246283 -0.136261692350274 -0.1457380086912753 -0.1395465301403092 -0.1501673693217601 -0.1334075308782659 -0.1915791643191889 -0.1383454935136817 0.1771683984358992 0.1675924554138642 1:4 2:7 3:6 4:6 5:7 6:6 7:7 8:7 9:7 10:6 11:7 12:8 13:6 14:3 15:8 16:12 17:11 18:7 19:7 20:11 21:12 22:10 23:3 
-0.1511892784445027 -0.1406169159038738 -0.1724615513582741 -0.1505223155892147 -0.161234774933522 -0.1534219546118024 -0.1672119046188896 -0.1465776177655539 -0.2937216026658526 -0.1532555497624868 0.1964581260797426 0.1841923095528364 1:4 2:6 3:5 4:6 5:6 6:6 7:6 8:7 9:5 10:4 11:5 12:7 13:6 16:4 17:8 18:12 19:11 20:8 21:7 22:11 23:12 
-0.4788270455094987 -0.4467109764074063 -0.5398889775647243 -0.4778495311914405 -0.5126382223765659 -0.4964110991382724 -0.5308373516999123 -0.4782280190714145 -0.5652501723363147 -0.4869052950040363 0.7879008635816009 0.5885067882944101 1:5 2:6 3:7 4:5 5:6 6:6 7:6 8:6 9:5 10:4 11:5 12:7 13:6 16:3 17:8 18:12 19:11 20:8 21:8 22:11 23:13 
-0.2610274806330174 -0.2423632894467318 -0.2880617271842043 -0.2595037688120611 -0.2802248975439965 -0.2704192431125911 -0.2900401402228547 -0.2602946919200533 -0.2430051977499522 -0.265579072935357 0.2919384106204834 0.3204514812123846 1:6 2:6 3:6 4:6 5:7 6:6 7:6 8:7 9:7 10:6 11:7 12:8 13:6 14:3 15:8 16:13 17:11 18:7 19:7 20:11 21:13 22:8 23:3 
-0.5708668222764393 -0.5311669508564107 -0.6584843543417027 -0.5680092938542731 -0.6114259843663161 -0.593077180733957 -0.6315865755857553 -0.5711854880475867 -0.777900586753157 -0.580664919167458 0.8904037893979994 0.6997919565577333 1:3 2:6 3:5 4:5 5:5 6:6 7:6 8:6 9:5 10:4 11:5 12:7 13:6 16:3 17:8 18:12 19:11 20:5 21:7 22:11 23:12 
-0.4198232865091764 -0.3920661554190567 -0.4979976542923316 -0.41855275458775 -0.4503223850254242 -0.4413833246055572 -0.4658756113416864 -0.4242303931192619 -0.577099990614656 -0.427441929684563 0.5639636141234735 0.5158854141195194 1:4 2:6 3:6 4:5 5:7 6:6 7:6 8:6 9:7 10:6 11:6 12:8 13:6 14:3 15:8 16:11 17:10 18:7 19:7 20:11 21:11 22:8 23:3 
-0.02060796290273752 -0.02042187742421237 -0.01611242827109131 -0.02222485095036464 -0.02290030390376998 -0.02131191789267823 -0.02432890196351695 -0.020151994816862 -0.02179057297501071 -0.02258529886103712 0 0.02769562715929799 1:4 2:6 3:7 4:7 5:7 6:6 7:6 8:7 9:7 10:6 11:8 12:8 13:6 14:3 15:8 16:12 17:11 18:9 19:7 20:11 21:12 22:8 23:4 
-0.009126300983929053 -0.009703067745795053 -0.01088159333920044 -0.007964281042433442 -0.008219803703091562 -0.007165238062032072 -0.007927497239244241 -0.00674937662561476 -0.09658418295259716 -0.008350026285497934 0.04828521755361619 0.009333931079409942 1:5 2:6 3:6 4:6 5:7 6:7 7:7 8:7 9:7 10:6 11:7 12:8 13:6 14:3 15:9 16:12 17:11 18:7 19:7 20:11 21:13 22:9 23:3 
-0.08600146883804455 -0.07946026020303706 -0.1000450268076021 -0.08515705014989038 -0.09185542546355845 -0.08699946255067785 -0.09461977320979391 -0.08344504059351707 -0.09170480094846623 -0.08661969083391366 0.2057070095036284 0.1049085763211532 1:4 2:6 3:6 4:7 5:7 6:6 7:7 8:7 9:7 10:5 11:6 12:9 13:6 14:3 15:8 16:12 17:10 18:8 19:7 20:11 21:12 22:8 23:4 
-0 -0 -0 -0 -0 -0 -0 -0 -0.03355440780743871 -0 0 0 1:5 2:6 3:7 4:6 5:7 6:7 7:6 8:7 9:7 10:6 11:7 12:8 13:6 14:4 15:9 16:13 17:11 18:7 19:7 20:11 21:12 22:8 23:3 
-0.06533858532293621 -0.06180306057435678 -0.0753861296954816 -0.06612188974301754 -0.07078692798963873 -0.06710782215271578 -0.07389543779968369 -0.06447735136637317 -0.003785582314806221 -0.06635253957558018 0.08995395259349934 0.08022383777643305 1:4 2:6 3:7 4:7 5:7 6:7 7:6 8:7 9:7 10:6 11:7 12:8 13:7 14:3 15:9 16:12 17:11 18:7 19:8 20:11 21:12 22:9 23:4 
-0 -0 -0 -0 -0 -0 -0 -0 -0 -0 0.02344457723896648 0 1:4 2:6 3:5 4:5 5:6 6:6 7:6 8:6 9:4 10:5 11:6 12:7 13:6 15:1 16:3 17:7 18:12 19:11 20:7 21:7 22:12 23:12 
-0.4112718575284413 -0.3832637229893799 -0.4894674797044247 -0.4091035073586458 -0.439958223903314 -0.4248940469962268 -0.455130960778457 -0.4071479732587602 -0.5846448133041494 -0.4181325402707436 0.5570001000981313 0.5050192467772889 1:4 2:6 3:7 4:6 5:7 6:6 7:6 8:9 9:7 10:6 11:7 12:8 13:6 14:4 15:8 16:12 17:11 18:7 19:7 20:11 21:12 22:8 23:5 
-0.3567269179544244 -0.3323123483723367 -0.3949320684863795 -0.3537194801865531 -0.3805778589146108 -0.3688157301512239 -0.3931209311090618 -0.3540819626297173 -0.4022369233824654 -0.3617165698687936 0.4217556827715734 0.4358351961735495 1:4 2:6 3:6 4:8 5:7 6:6 7:6 8:7 9:7 10:6 11:8 12:8 13:6 14:3 15:8 16:12 17:11 18:8 19:8 20:12 21:12 22:8 23:3 
-0 -0 -0 -0 -0 -0 -0 -0 -0.01406321687713412 -0 0.02986916787343864 0 1:4 2:6 3:5 4:6 5:6 6:6 7:7 8:6 9:5 10:4 11:5 12:7 13:6 16:3 17:9 18:12 19:11 20:7 21:8 22:11 23:12 
-0.4304713198872026 -0.4030121779534063 -0.4846664382572805 -0.428629219815801 -0.462395009385592 -0.4485568740154017 -0.4775823296894521 -0.4294269319943754 -0.5181403376274827 -0.4389920737710941 0.4529057733264071 0.5300599624281863 1:4 2:6 3:5 4:5 5:6 6:6 7:6 8:6 9:5 10:5 11:7 12:7 13:6 15:1 16:3 17:8 18:12 19:11 20:8 21:7 22:12 23:12 
-0.2973481670256172 -0.2813416910320999 -0.3383239754049399 -0.3134980272753043 -0.3354281842417036 -0.328161664684745 -0.3624460121502083 -0.3111472476116637 -0.5737043532677447 -0.3183254979394641 -0.2719990257105028 0.4197780994660419 1:5 2:8 3:6 4:4 5:6 6:8 7:9 8:9 9:3 10:3 11:5 12:6 13:5 14:5 15:9 16:9 17:8 18:6 19:7 20:9 21:10 22:9 23:5 
-0 -0 -0 -0 -0 -0 -0 -0 -0.06652841615222782 -0 -0.1323765282580686 0 1:5 2:7 3:7 4:6 5:6 6:8 7:9 8:7 9:5 10:3 11:5 12:7 13:5 14:4 15:8 16:10 17:9 18:7 19:7 20:9 21:11 22:9 23:6 
-0 -0 -0.05440957048775667 -0 -0 -0 -0 -0 -0.1612150108444237 -0 -0.05873969504235275 0 1:6 2:7 3:7 4:6 5:6 6:8 7:9 8:7 9:4 10:4 11:5 12:7 13:5 14:4 15:9 16:11 17:8 18:6 19:7 20:9 21:11 22:10 23:6 
-0.05358578754213342 -0.05014457980906233 -0.04052375023173774 -0.05584198074830422 -0.05858710958389488 -0.05884900160464709 -0.06491107249952857 -0.05411173235201167 -0.02337488343713016 -0.05664177163274125 -0.05215276677140487 0.07398430431194578 1:5 2:7 3:7 4:8 5:6 6:8 7:9 8:8 9:3 10:3 11:5 12:7 13:5 14:4 15:9 16:10 17:9 18:7 19:7 20:9 21:11 22:9 23:6 
-0.1963313807709656 -0.1856646814207065 -0.2181438695850452 -0.207283109337354 -0.2228270708199772 -0.2174305748020662 -0.2409281385283701 -0.206592662148722 -0.2056395364089059 -0.2109992406649329 -0.1838747797901468 0.278393001420622 1:5 2:7 3:6 4:6 5:6 6:8 7:9 8:7 9:1 10:3 11:5 12:6 13:6 14:4 15:7 16:10 17:8 18:6 19:7 20:8 21:12 22:8 23:5 
-0.05198823787605097 -0.04867882066843199 -0.08665688224976148 -0.05455851582370361 -0.05883516589187949 -0.06430191850710959 -0.0637393989678767 -0.0620254865973976 -0.0427562441274588 -0.05483778907084876 -0.07100038775951066 0.07266704087781088 1:5 2:7 3:6 4:6 5:5 6:8 7:8 8:7 9:3 10:3 11:4 12:7 13:5 14:4 15:6 16:10 17:7 18:6 19:7 20:9 21:10 22:10 23:5 
-0.03516846925380294 -0.03388379504044216 -0.1139297432160487 -0.03820230828799574 -0.04023786896505653 -0.04466520765313343 -0.04407043071653188 -0.0430442760642073 -0.2486589646058712 -0.03848535867727863 -0 0.05097024609135786 1:5 2:7 3:6 4:4 5:4 6:6 7:7 8:5 9:1 10:3 11:6 12:7 13:5 16:5 17:8 18:11 19:8 20:6 21:8 22:9 23:11 
-0.256030670841264 -0.2422297991923588 -0.3366268330295879 -0.27001479054801 -0.2896134899373078 -0.281756856479083 -0.3126889427672403 -0.2633959187937687 -0.314041363746966 -0.2735805917111312 -0.2144951047936359 0.3618164908982917 1:5 2:5 3:8 4:6 5:6 6:8 7:9 8:7 9:3 10:3 11:4 12:5 13:4 14:4 15:7 16:8 17:8 18:6 19:6 20:8 21:11 22:9 23:6 
-0.2510465736640556 -0.2364211584027131 -0.2719283734074858 -0.2638554964387838 -0.2836149532916137 -0.2817323766387652 -0.3060247886904543 -0.2302160557809677 -0.4250439967589171 -0.2678457427712671 -0.6282080179039511 0.3539422103762834 1:5 2:7 3:7 4:4 5:4 6:6 7:7 8:5 9:2 10:3 11:5 12:8 13:5 16:5 17:8 18:11 19:10 20:6 21:8 22:9 23:11 
-0.1710054930617849 -0.162036649165867 -0.4347499177341059 -0.1802213432246554 -0.204607517846888 -0.1796472816042295 -0.2091057007080264 -0.2454308694786144 -0.8962946874392151 -0.1837275904809323 -0.3066173649313187 0.2424930238318116 1:5 2:7 3:6 4:4 5:4 6:6 7:6 8:5 9:3 10:2 11:4 12:7 13:5 16:4 17:9 18:11 19:8 20:6 21:7 22:8 23:11 
-0.4705643554872652 -0.4449935955702519 -0.6117606828521435 -0.4965614479669895 -0.5323141927501431 -0.5214037566632117 -0.5745694159782858 -0.5001213999317988 -0.6074390006998834 -0.5036843776295808 -0.4586749649832843 0.6658284170775672 1:5 2:4 3:6 4:6 5:5 6:8 7:7 8:6 9:3 10:3 11:4 12:7 13:5 14:3 15:9 16:9 17:6 18:5 19:8 20:7 21:9 22:7 23:6 
-0.166283771699901 -0.1575189391340358 -0.2012561222256697 -0.1760355223908627 -0.1878654991707351 -0.1836248449576287 -0.2038819820402585 -0.1765434308942042 -0.2320864915243783 -0.1786644416680926 -0.1234593606098964 0.2365845644747817 1:5 2:7 3:5 4:6 5:6 6:9 7:9 8:6 9:4 10:3 11:4 12:7 13:5 14:4 15:7 16:10 17:8 18:7 19:7 20:9 21:9 22:9 23:6 
-0.1401963879529588 -0.1322881743711946 -0.07930398164672484 -0.1473454247362199 -0.1587276251918245 -0.1541492861463256 -0.1710177789443578 -0.145760057031002 -0.1045584420995427 -0.149504798692959 -0.09082477696549097 0.1990007072565752 1:5 2:7 3:8 4:6 5:6 6:8 7:9 8:7 9:3 10:3 11:6 12:8 13:5 14:4 15:8 16:10 17:8 18:7 19:7 20:9 21:11 22:10 23:7 
-0.01382436069645557 -0.01361107565734066 -0 -0.01340534992431963 -0.01782137185793876 -0.04813600654930368 -0.0159460807629957 -0.1557338907940158 -0 -0.01313549222308275 -0 0.02069963063033894 1:6 2:7 3:6 4:4 5:5 6:6 7:7 8:5 9:1 10:2 11:4 12:7 13:5 16:4 17:9 18:10 19:8 20:6 21:7 22:10 23:11 
-0.1308815792265446 -0.1235522279883231 -0.07523440231394105 -0.1395458782528466 -0.1400584817493761 -0.1135664958975417 -0.1602850991618314 -0.07381993345696876 -0 -0.1414285339318999 -0.09557511345049355 0.1844529069749734 1:6 2:7 3:6 4:4 5:5 6:6 7:7 8:5 9:1 10:2 11:5 12:7 13:5 16:4 17:9 18:11 19:9 20:6 21:7 22:9 23:11 
-0 -0 -0 -0 -0 -0 -0 -0 -0.1811373822758377 -0 -0 0 1:5 2:7 3:6 4:4 5:4 6:7 7:7 8:5 9:1 10:2 11:5 12:7 13:5 16:5 17:8 18:10 19:8 20:7 21:7 22:9 23:11 
-0.3218605994303332 -0.3040745277109957 -0.3334506926615367 -0.3395341842962638 -0.3628782509768833 -0.3652678258367364 -0.3935831402479329 -0.2973430166560252 -0.3417615850396852 -0.3445314922702212 -0.2926191880052479 0.4548146385967536 1:5 2:7 3:8 4:4 5:4 6:6 7:7 8:6 9:2 10:2 11:4 12:7 13:5 14:1 16:4 17:8 18:10 19:8 20:8 21:8 22:9 23:11 
-0 -0 -0.1199425636241399 -0 -0 -0 -0 -0 -0.1495876271963708 -0 -0 0 1:5 2:8 3:7 4:6 5:6 6:8 7:9 8:7 9:3 10:4 11:6 12:7 13:5 14:5 15:8 16:11 17:8 18:6 19:7 20:9 21:11 22:9 23:7 
-0.1612971003447147 -0.1525824087905534 -0.1599630233556933 -0.1704251204827281 -0.1821553583651331 -0.1787807624596597 -0.1968207586966854 -0.16732032461644 -0.1552924370533109 -0.1727054121378998 -0.2377140880668831 0.2293751814786218 1:5 2:7 3:7 4:7 5:7 6:8 7:10 8:7 9:4 10:3 11:5 12:7 13:5 14:5 15:8 16:11 17:9 18:6 19:7 20:10 21:11 22:9 23:6 
-0.4949217545461614 -0.4683950620978524 -0.6077168546429897 -0.5224443024203196 -0.5602574583562677 -0.5495450439788871 -0.6048353489191031 -0.5233702964336245 -0.6427607429388907 -0.5311876447844581 -0.4779194927489974 0.7000640959218596 1:3 2:6 3:5 4:3 5:5 6:7 7:6 8:6 9:1 10:1 11:3 12:4 13:3 14:2 15:5 16:7 17:4 18:4 19:6 20:5 21:8 22:7 23:5 
-0.4921077080891616 -0.4653335175640164 -0.6099503887295833 -0.5193890887702005 -0.556281076513055 -0.5431646533544141 -0.6017648799938893 -0.5123031668573099 -0.6397516057552267 -0.5277175861522654 -0.4758690768954066 0.6965543846623958 1:4 2:6 3:6 4:4 5:5 6:7 7:8 8:4 9:2 10:2 11:3 12:2 13:3 14:3 15:4 16:7 17:5 18:5 19:5 20:6 21:8 22:6 23:7 
-0.5485756920935394 -0.5191145944794472 -0.7130677523523001 -0.5790506489023064 -0.6417033542939355 -0.6911978225763942 -0.6711410889123881 -0.5955266444376031 -0.7184518669650045 -0.5885187199274798 -0.5201337668340695 0.775770272046631 1:4 2:7 3:4 4:4 5:4 6:5 7:7 8:5 9:1 10:2 11:4 12:5 13:5 16:5 17:7 18:8 19:6 20:4 21:7 22:10 23:10 
-0.00724842196478769 -0.007511647207606501 -0 -0.008869516612944037 -0.008470709698916529 -0.007587394045510005 -0.009098075661428933 -0.006248194585891127 -0 -0.008519411165860052 -0 0.01044076713695955 1:5 2:7 3:9 4:6 5:6 6:8 7:9 8:7 9:3 10:3 11:5 12:7 13:5 14:4 15:8 16:10 17:8 18:6 19:8 20:9 21:11 22:9 23:7 
-0 -0 -0.1018769190698179 -0 -0 -0 -0 -0 -0 -0 -0 0 1:5 2:7 3:8 4:6 5:6 6:8 7:9 8:7 9:4 10:4 11:5 12:7 13:5 14:5 15:9 16:10 17:8 18:6 19:7 20:9 21:11 22:9 23:7 
-0.08787889677087789 -0.08349555344609164 -0.1034248431958135 -0.09224230538754725 -0.1002411913333637 -0.09494562328742022 -0.107598800806016 -0.0896718588632803 -0.08200371387161258 -0.09437254281154824 -0.04450118367779835 0.1239577833401552 1:5 2:8 3:7 4:7 5:6 6:8 7:9 8:7 9:3 10:3 11:5 12:8 13:5 14:6 15:8 16:10 17:8 18:6 19:7 20:10 21:11 22:9 23:6 
-0.06202427625373043 -0.05809145699798712 -0.07513950718964288 -0.06408048375895922 -0.06839354394544871 -0.06670386318687152 -0.07391308284252979 -0.06335303820765874 -0.08293023635262609 -0.06534638531175947 -0.06211275988271425 -0.08954594562394079 5:9 6:9 7:1 8:2 9:9 10:10 14:1 15:4 16:4 17:4 18:4 19:5 20:6 21:4 22:4 23:4 
-0.07197966913300907 -0.07070802541263957 -0.08863250600795061 -0.07501007191829312 -0.0812878938193039 -0.07950740989492963 -0.08572109955071386 -0.07420256152665432 -0.09719149535162191 -0.07742598830989324 -0.07244304955493193 -0.1050224564139999 5:10 6:9 9:10 10:9 14:2 15:4 16:4 17:4 18:4 19:4 20:4 21:4 22:4 23:4 
-0.07365475544511359 -0.06918282480024815 -0.0906077461388274 -0.07684098788335926 -0.08131501637595352 -0.08110147400945693 -0.08906535490038411 -0.07686517182571961 -0.09780745028370517 -0.07833623170501314 -0.0735374261777695 -0.1079573624607198 5:7 6:7 7:1 9:5 10:5 17:2 18:3 19:4 20:4 21:4 22:5 23:3 
-0.09565686526872215 -0.08603947133774481 -0.1155761517783791 -0.09950497802860224 -0.1070477896420746 -0.1048182996780101 -0.1144955571260599 -0.09932486251610581 -0.1236603195940995 -0.1009492647909922 -0.09178598808909129 -0.1383336497087783 5:9 6:9 7:1 8:2 9:9 10:9 11:1 15:6 16:5 17:4 18:5 19:4 20:4 21:4 22:4 23:4 
-0.4435997041815545 -0.4063109356719553 -0.5389196091770427 -0.4618491418048146 -0.496290434207798 -0.4852188881897754 -0.5316704549401744 -0.4592838668771113 -0.5834750937434439 -0.4706707118765836 -0.4356309735083499 -0.6448082884848515 5:7 6:4 9:5 10:6 17:3 18:4 19:2 20:4 21:3 22:2 23:4 
-0.1114935267449543 -0.1028057376285389 -0.1356291507506014 -0.1163355156196454 -0.1247033633382635 -0.1220559620088257 -0.1341658019688803 -0.115685600257762 -0.1466125621723586 -0.1185171622727098 -0.109190033243791 -0.1619949875629965 5:9 6:8 9:7 10:5 15:2 16:1 17:4 18:3 19:3 20:4 21:4 22:4 23:4 
-0.001064189632262748 -0 -0 -0 -0.0007742259914235467 -0 -0 -0.001005693590279337 -0.0006893477252422286 -0 -0 -0.0009311734867320647 5:7 6:7 7:1 9:7 10:7 11:1 17:4 18:4 19:6 20:4 21:4 22:4 23:4 
-0.1940796330018765 -0.1784695361165343 -0.2356809310494059 -0.2022238967421926 -0.2177096427702999 -0.2121795133095673 -0.2317465693275213 -0.2003635749317667 -0.2555548077052581 -0.2061883990901716 -0.1897553156980234 -0.282075937805124 4:2 5:9 6:9 7:2 8:1 9:9 10:9 11:1 15:5 16:4 17:4 18:4 19:6 20:4 21:5 22:5 23:5 
-0.1861295875617199 -0.1718782564407264 -0.2262835784350938 -0.1934604096370816 -0.2087702039681936 -0.2042475135123569 -0.2235160609886395 -0.1930091214101275 -0.2456097367839805 -0.1979980825566292 -0.1822901295630088 -0.2713771243580328 3:2 4:1 5:7 6:7 7:1 9:7 10:7 17:5 18:4 19:4 20:4 21:4 22:6 23:5 
-0.1915255893927462 -0.1754321264406335 -0.232130170537322 -0.1988233972649927 -0.2137800788710897 -0.2087040552844677 -0.2290367924393168 -0.1978849121475093 -0.2503060974017827 -0.2023028794982258 -0.1870229079834347 -0.2775827654940827 5:9 6:9 8:1 9:9 10:9 11:3 15:4 16:4 17:4 18:4 19:4 20:5 21:4 22:5 23:6 
-0.7051643838257918 -0.8035442288396929 -0.8572235024215922 -0.7340730867434636 -0.7955285277105563 -0.7713208957788136 -0.8456047625748004 -0.7306758867226022 -0.9282341935975483 -0.7485114871615477 -0.6924334501123495 -1 5:2 6:2 9:3 10:2 15:1 16:2 17:3 18:1 19:1 20:1 
-0.2191617132452022 -0.201569998537231 -0.2669564913563295 -0.2290733768579869 -0.2454088296447799 -0.2399780843553792 -0.2632079647103731 -0.2273004920338771 -0.2890001110611602 -0.2328196583697111 -0.2157469125759744 -0.318652195050557 4:3 5:7 6:8 9:7 10:7 16:1 17:5 18:4 19:5 20:4 21:4 22:5 23:4 
-0.1442512217289457 -0.1319200250393098 -0.1761419561515768 -0.1508373247902664 -0.1625500738147825 -0.1593979048238661 -0.1743650839177515 -0.1505963741913544 -0.1896976742230749 -0.1536960539627944 -0.1411594888514418 -0.2110696586450921 4:2 5:10 6:9 7:1 8:1 9:9 10:9 14:1 15:4 16:4 17:6 18:4 19:4 20:6 21:4 22:4 23:4 
-0.01999541337015904 -0.01918379974609754 -0.02537538283780955 -0.02128128807728226 -0.02227701549950209 -0.02253798620467353 -0.0251195874857028 -0.02145872882481161 -0.02774836408647418 -0.02200817115269688 -0.02137468453146087 -0.03042462293534385 5:9 6:9 7:2 9:9 10:9 11:2 15:4 16:5 17:4 18:5 19:4 20:4 21:5 22:5 23:4 
-0.1105294118964819 -0.09560891397391334 -0.1321922691099461 -0.1144301556216213 -0.1227061720232846 -0.1193193873209053 -0.1317091645183879 -0.1136274364854776 -0.1416601477025238 -0.1154818623702627 -0.1055078480541498 -0.1595411435004842 5:9 6:10 9:10 10:9 14:2 15:4 16:4 17:4 18:4 19:4 20:4 21:4 22:4 23:4 
-0.06062751616098152 -0.05749991614479483 -0.07464298199521104 -0.06311309912546481 -0.06765904019944553 -0.06656986295414924 -0.07311949991699368 -0.06265561297066277 -0.08169818298602005 -0.06489336352768663 -0.0616601024359405 -0.08881329461693416 4:1 5:8 6:9 9:9 10:9 11:1 15:5 16:5 17:4 18:3 19:4 20:4 21:4 22:4 23:4 
-0.03537137503848616 -0.03151056665521412 -0.04193477987851803 -0.03620371489422912 -0.04103739496881115 -0.03855464554737659 -0.04227569204382143 -0.03627976476499625 -0.04664808070775162 -0.03773829883976006 -0.03377508229274805 -0.05172981821102252 5:6 6:6 9:6 10:5 17:4 18:3 19:2 20:4 21:4 22:4 23:2 
-0.07067399574741531 -0.06504691346042447 -0.0862242941133495 -0.07372841014155283 -0.07960064236224118 -0.07827420140239642 -0.08525473837302003 -0.07352203393887211 -0.09292621046493379 -0.07613123650737649 -0.0697017832245732 -0.1031989727104348 5:7 6:8 9:7 10:8 11:2 16:2 17:4 18:5 19:5 20:4 21:4 22:4 23:4 
-0.4070972130412471 -0.3751870363199978 -0.4946595825982583 -0.4245996586803208 -0.4559297817386407 -0.4451694990322335 -0.4882324732564729 -0.4219265024220368 -0.5365930266696062 -0.4323172138285901 -0.4009275319388588 -0.593236352082796 2:1 3:2 4:1 5:9 6:9 8:2 9:9 10:9 11:1 15:4 16:4 17:7 18:7 19:4 20:4 21:4 22:5 23:4 
-0.1918701280384262 -0.1761877848555738 -0.2332860589376272 -0.2007310092421597 -0.2151031512078671 -0.2094637032155397 -0.2304934605548403 -0.1987347858633833 -0.2516509243667999 -0.2037746585091353 -0.1892656590897198 -0.278393001420622 5:7 6:7 9:7 10:7 11:2 12:1 17:4 18:4 19:4 20:4 21:6 22:5 23:4 
-0.1391852512222067 -0.1281591853345861 -0.1698196725161609 -0.1454874314823167 -0.1563167013520398 -0.1525495847516016 -0.1681511170779934 -0.1453456695597366 -0.1833903082306817 -0.1477176012095412 -0.1374266482722799 -0.2033090612117626 1:2 2:1 5:9 6:9 8:1 9:9 10:9 15:4 16:4 17:4 18:4 19:5 20:4 21:5 22:6 23:4 
-0.1709077341141271 -0.157096172502337 -0.2075429858877981 -0.1779861078488867 -0.1908751794906291 -0.1873262880794878 -0.2052902742126095 -0.1775225976824455 -0.2242153116170803 -0.1818908446739472 -0.169085871659301 -0.2489023166554779 5:7 6:7 7:1 8:2 9:7 10:7 17:4 18:6 19:4 20:4 21:4 22:5 23:4 
-0.5290211228498444 -0.4829926039221263 -0.6431320510031578 -0.5507335348491549 -0.5931274296379185 -0.578524262980554 -0.6338800274536383 -0.5477951391944278 -0.696795598293426 -0.5610649952770124 -0.5195209816900088 -0.7704405516129404 5:7 6:7 9:4 10:3 14:1 15:1 16:2 17:2 18:2 19:2 20:2 21:3 22:4 23:2 
-0.009154811039521543 -0.008860954699395242 -0.01209594442556089 -0.01043102567710093 -0.01021759124172847 -0.009842797719700582 -0.01111453248968739 -0.009216652313634683 -0.01383192689463789 -0.009253125076978615 -0.00814215443614579 -0.01424708681905201 5:7 6:7 7:1 9:7 10:7 11:2 17:4 18:6 19:4 20:4 21:4 22:5 23:4 
